Language model created by QuickLM on Thu Mar  3 13:40:22 EST 2011
Copyright (c) 1996-2010 Carnegie Mellon University and Alexander I. Rudnicky

The model is in standard ARPA format, designed by Doug Paul while he was at MITRE.

The code that was used to produce this language model is available in Open Source.
Please visit http://www.speech.cs.cmu.edu/tools/ for more information

The (fixed) discount mass is 0.5. The backoffs are computed using the ratio method.
This model based on a corpus of 69 sentences and 69 words

\data\
ngram 1=69
ngram 2=134
ngram 3=67

\1-grams:
-0.7782 </s> -0.3010
-0.7782 <s> -0.2218
-2.6170 ADDITION -0.2218
-2.6170 ALFA -0.2218
-2.6170 AMPERSAND -0.2218
-2.6170 AT -0.2218
-2.6170 BACKSLASH -0.2218
-2.6170 BACKSPACE -0.2218
-2.6170 BRAVO -0.2218
-2.6170 BULLET -0.2218
-2.6170 CHARLIE -0.2218
-2.6170 CLOSE -0.2218
-2.6170 COLON -0.2218
-2.6170 COMMA -0.2218
-2.6170 COPYRIGHT -0.2218
-2.3160 DASH -0.2218
-2.6170 DELTA -0.2218
-2.6170 DOT -0.2218
-2.6170 EIGHT -0.2218
-2.6170 ELEFANT -0.2218
-2.6170 ENTER -0.2218
-2.6170 EXCLAMATION -0.2218
-2.6170 FIVE -0.2218
-2.6170 FOUR -0.2218
-2.6170 FOXTROT -0.2218
-2.6170 GAMMA -0.2218
-2.6170 HASH -0.2218
-2.6170 HOTEL -0.2218
-2.6170 INDIA -0.2218
-2.6170 JULIETT -0.2218
-2.6170 KARMA -0.2218
-2.6170 KEYBOARD -0.2218
-2.6170 LIMA -0.2218
-2.6170 MARK -0.2218
-2.6170 MENU -0.2218
-2.6170 MIKE -0.2218
-2.6170 MINUS -0.2218
-2.6170 NINE -0.2218
-2.6170 NOVEMBER -0.2218
-2.6170 ONE -0.2218
-2.6170 OSCAR -0.2218
-2.6170 PAPA -0.2218
-2.6170 PERCENT -0.2218
-2.6170 PIPE -0.2218
-2.6170 POUND -0.2218
-2.6170 QUEEN -0.2218
-2.6170 QUESTION -0.2218
-2.6170 QUIT -0.2218
-2.6170 QUOTATION -0.2218
-2.6170 ROMEO -0.2218
-2.6170 SEMICOLON -0.2218
-2.6170 SEVEN -0.2218
-2.6170 SIERRA -0.2218
-2.3160 SIGN -0.2218
-2.6170 SIX -0.2218
-2.6170 SLASH -0.2218
-2.6170 SPACE -0.2218
-2.6170 TANGO -0.2218
-2.6170 THREE -0.2218
-2.6170 TWO -0.2218
-2.6170 UNDERSCORE -0.2218
-2.6170 UNDERSTRIKE -0.2218
-2.6170 UNIFORM -0.2218
-2.6170 VICTOR -0.2218
-2.6170 WHISKEY -0.2218
-2.6170 XENON -0.2218
-2.6170 YANKEE -0.2218
-2.6170 ZERO -0.2218
-2.6170 ZULU -0.2218

\2-grams:
-2.1399 <s> ADDITION 0.0000
-2.1399 <s> ALFA 0.0000
-2.1399 <s> AMPERSAND 0.0000
-2.1399 <s> AT 0.0000
-2.1399 <s> BACKSLASH 0.0000
-2.1399 <s> BACKSPACE 0.0000
-2.1399 <s> BRAVO 0.0000
-2.1399 <s> BULLET 0.0000
-2.1399 <s> CHARLIE 0.0000
-2.1399 <s> CLOSE 0.0000
-2.1399 <s> COLON 0.0000
-2.1399 <s> COMMA 0.0000
-2.1399 <s> COPYRIGHT 0.0000
-1.8388 <s> DASH 0.0000
-2.1399 <s> DELTA 0.0000
-2.1399 <s> DOT 0.0000
-2.1399 <s> EIGHT 0.0000
-2.1399 <s> ELEFANT 0.0000
-2.1399 <s> ENTER 0.0000
-2.1399 <s> EXCLAMATION 0.0000
-2.1399 <s> FIVE 0.0000
-2.1399 <s> FOUR 0.0000
-2.1399 <s> FOXTROT 0.0000
-2.1399 <s> GAMMA 0.0000
-2.1399 <s> HASH 0.0000
-2.1399 <s> HOTEL 0.0000
-2.1399 <s> INDIA 0.0000
-2.1399 <s> JULIETT 0.0000
-2.1399 <s> KARMA 0.0000
-2.1399 <s> KEYBOARD 0.0000
-2.1399 <s> LIMA 0.0000
-2.1399 <s> MARK 0.0000
-2.1399 <s> MENU 0.0000
-2.1399 <s> MIKE 0.0000
-2.1399 <s> MINUS 0.0000
-2.1399 <s> NINE 0.0000
-2.1399 <s> NOVEMBER 0.0000
-2.1399 <s> ONE 0.0000
-2.1399 <s> OSCAR 0.0000
-2.1399 <s> PAPA 0.0000
-2.1399 <s> PERCENT 0.0000
-2.1399 <s> PIPE 0.0000
-2.1399 <s> POUND 0.0000
-2.1399 <s> QUEEN 0.0000
-2.1399 <s> QUESTION 0.0000
-2.1399 <s> QUIT 0.0000
-2.1399 <s> QUOTATION 0.0000
-2.1399 <s> ROMEO 0.0000
-2.1399 <s> SEMICOLON 0.0000
-2.1399 <s> SEVEN 0.0000
-2.1399 <s> SIERRA 0.0000
-1.8388 <s> SIGN 0.0000
-2.1399 <s> SIX 0.0000
-2.1399 <s> SLASH 0.0000
-2.1399 <s> SPACE 0.0000
-2.1399 <s> TANGO 0.0000
-2.1399 <s> THREE 0.0000
-2.1399 <s> TWO 0.0000
-2.1399 <s> UNDERSCORE 0.0000
-2.1399 <s> UNDERSTRIKE 0.0000
-2.1399 <s> UNIFORM 0.0000
-2.1399 <s> VICTOR 0.0000
-2.1399 <s> WHISKEY 0.0000
-2.1399 <s> XENON 0.0000
-2.1399 <s> YANKEE 0.0000
-2.1399 <s> ZERO 0.0000
-2.1399 <s> ZULU 0.0000
-0.3010 ADDITION </s> -0.3010
-0.3010 ALFA </s> -0.3010
-0.3010 AMPERSAND </s> -0.3010
-0.3010 AT </s> -0.3010
-0.3010 BACKSLASH </s> -0.3010
-0.3010 BACKSPACE </s> -0.3010
-0.3010 BRAVO </s> -0.3010
-0.3010 BULLET </s> -0.3010
-0.3010 CHARLIE </s> -0.3010
-0.3010 CLOSE </s> -0.3010
-0.3010 COLON </s> -0.3010
-0.3010 COMMA </s> -0.3010
-0.3010 COPYRIGHT </s> -0.3010
-0.3010 DASH </s> -0.3010
-0.3010 DELTA </s> -0.3010
-0.3010 DOT </s> -0.3010
-0.3010 EIGHT </s> -0.3010
-0.3010 ELEFANT </s> -0.3010
-0.3010 ENTER </s> -0.3010
-0.3010 EXCLAMATION </s> -0.3010
-0.3010 FIVE </s> -0.3010
-0.3010 FOUR </s> -0.3010
-0.3010 FOXTROT </s> -0.3010
-0.3010 GAMMA </s> -0.3010
-0.3010 HASH </s> -0.3010
-0.3010 HOTEL </s> -0.3010
-0.3010 INDIA </s> -0.3010
-0.3010 JULIETT </s> -0.3010
-0.3010 KARMA </s> -0.3010
-0.3010 KEYBOARD </s> -0.3010
-0.3010 LIMA </s> -0.3010
-0.3010 MARK </s> -0.3010
-0.3010 MENU </s> -0.3010
-0.3010 MIKE </s> -0.3010
-0.3010 MINUS </s> -0.3010
-0.3010 NINE </s> -0.3010
-0.3010 NOVEMBER </s> -0.3010
-0.3010 ONE </s> -0.3010
-0.3010 OSCAR </s> -0.3010
-0.3010 PAPA </s> -0.3010
-0.3010 PERCENT </s> -0.3010
-0.3010 PIPE </s> -0.3010
-0.3010 POUND </s> -0.3010
-0.3010 QUEEN </s> -0.3010
-0.3010 QUESTION </s> -0.3010
-0.3010 QUIT </s> -0.3010
-0.3010 QUOTATION </s> -0.3010
-0.3010 ROMEO </s> -0.3010
-0.3010 SEMICOLON </s> -0.3010
-0.3010 SEVEN </s> -0.3010
-0.3010 SIERRA </s> -0.3010
-0.3010 SIGN </s> -0.3010
-0.3010 SIX </s> -0.3010
-0.3010 SLASH </s> -0.3010
-0.3010 SPACE </s> -0.3010
-0.3010 TANGO </s> -0.3010
-0.3010 THREE </s> -0.3010
-0.3010 TWO </s> -0.3010
-0.3010 UNDERSCORE </s> -0.3010
-0.3010 UNDERSTRIKE </s> -0.3010
-0.3010 UNIFORM </s> -0.3010
-0.3010 VICTOR </s> -0.3010
-0.3010 WHISKEY </s> -0.3010
-0.3010 XENON </s> -0.3010
-0.3010 YANKEE </s> -0.3010
-0.3010 ZERO </s> -0.3010
-0.3010 ZULU </s> -0.3010

\3-grams:
-0.3010 <s> ADDITION </s>
-0.3010 <s> ALFA </s>
-0.3010 <s> AMPERSAND </s>
-0.3010 <s> AT </s>
-0.3010 <s> BACKSLASH </s>
-0.3010 <s> BACKSPACE </s>
-0.3010 <s> BRAVO </s>
-0.3010 <s> BULLET </s>
-0.3010 <s> CHARLIE </s>
-0.3010 <s> CLOSE </s>
-0.3010 <s> COLON </s>
-0.3010 <s> COMMA </s>
-0.3010 <s> COPYRIGHT </s>
-0.3010 <s> DASH </s>
-0.3010 <s> DELTA </s>
-0.3010 <s> DOT </s>
-0.3010 <s> EIGHT </s>
-0.3010 <s> ELEFANT </s>
-0.3010 <s> ENTER </s>
-0.3010 <s> EXCLAMATION </s>
-0.3010 <s> FIVE </s>
-0.3010 <s> FOUR </s>
-0.3010 <s> FOXTROT </s>
-0.3010 <s> GAMMA </s>
-0.3010 <s> HASH </s>
-0.3010 <s> HOTEL </s>
-0.3010 <s> INDIA </s>
-0.3010 <s> JULIETT </s>
-0.3010 <s> KARMA </s>
-0.3010 <s> KEYBOARD </s>
-0.3010 <s> LIMA </s>
-0.3010 <s> MARK </s>
-0.3010 <s> MENU </s>
-0.3010 <s> MIKE </s>
-0.3010 <s> MINUS </s>
-0.3010 <s> NINE </s>
-0.3010 <s> NOVEMBER </s>
-0.3010 <s> ONE </s>
-0.3010 <s> OSCAR </s>
-0.3010 <s> PAPA </s>
-0.3010 <s> PERCENT </s>
-0.3010 <s> PIPE </s>
-0.3010 <s> POUND </s>
-0.3010 <s> QUEEN </s>
-0.3010 <s> QUESTION </s>
-0.3010 <s> QUIT </s>
-0.3010 <s> QUOTATION </s>
-0.3010 <s> ROMEO </s>
-0.3010 <s> SEMICOLON </s>
-0.3010 <s> SEVEN </s>
-0.3010 <s> SIERRA </s>
-0.3010 <s> SIGN </s>
-0.3010 <s> SIX </s>
-0.3010 <s> SLASH </s>
-0.3010 <s> SPACE </s>
-0.3010 <s> TANGO </s>
-0.3010 <s> THREE </s>
-0.3010 <s> TWO </s>
-0.3010 <s> UNDERSCORE </s>
-0.3010 <s> UNDERSTRIKE </s>
-0.3010 <s> UNIFORM </s>
-0.3010 <s> VICTOR </s>
-0.3010 <s> WHISKEY </s>
-0.3010 <s> XENON </s>
-0.3010 <s> YANKEE </s>
-0.3010 <s> ZERO </s>
-0.3010 <s> ZULU </s>

\end\
