Language model created by QuickLM on Wed Mar  2 14:22:08 EST 2011
Copyright (c) 1996-2010 Carnegie Mellon University and Alexander I. Rudnicky

The model is in standard ARPA format, designed by Doug Paul while he was at MITRE.

The code that was used to produce this language model is available in Open Source.
Please visit http://www.speech.cs.cmu.edu/tools/ for more information

The (fixed) discount mass is 0.5. The backoffs are computed using the ratio method.
This model based on a corpus of 105 sentences and 103 words

\data\
ngram 1=103
ngram 2=202
ngram 3=101

\1-grams:
-0.7782 </s> -0.3010
-0.7782 <s> -0.2218
-2.7993 ALFA -0.2218
-2.7993 AMPERSAND -0.2218
-2.7993 APOSTROPHE -0.2218
-2.7993 ASTERISK -0.2218
-2.7993 AT -0.2218
-2.7993 BACKSLASH -0.2218
-2.7993 BAR -0.2218
-2.7993 BRACKETS -0.2218
-2.7993 BRAVO -0.2218
-2.7993 BROKEN -0.2218
-2.7993 BULLET -0.2218
-2.7993 CARET -0.2218
-2.7993 CHARLIE -0.2218
-2.7993 CLOSE -0.2218
-2.7993 COLON -0.2218
-2.7993 COMMA -0.2218
-2.4983 COPYRIGHT -0.2218
-2.7993 CURRENCY -0.2218
-2.7993 DAGGER -0.2218
-2.4983 DASH -0.2218
-2.7993 DEGREE -0.2218
-2.7993 DELTA -0.2218
-2.7993 DITTO -0.2218
-2.7993 DOLLAR -0.2218
-2.7993 DOT -0.2218
-2.7993 ECHO -0.2218
-2.7993 EIGHT -0.2218
-2.7993 ELLIPSIS -0.2218
-2.7993 ENTER -0.2218
-2.7993 EXCLAMATION -0.2218
-2.7993 FIVE -0.2218
-2.7993 FOUR -0.2218
-2.7993 FOXTROT -0.2218
-2.7993 FULL -0.2218
-2.7993 GOLF -0.2218
-2.7993 GUILLEMETS -0.2218
-2.7993 HASH -0.2218
-2.7993 HOTEL -0.2218
-2.7993 HYPHEN -0.2218
-2.7993 INDIA -0.2218
-2.7993 INDICATOR -0.2218
-2.7993 INTERPUNCT -0.2218
-2.7993 INVERTED -0.2218
-2.7993 JULIETT -0.2218
-2.7993 KEYBOARD -0.2218
-2.7993 KILO -0.2218
-2.7993 LIMA -0.2218
-2.7993 LOW -0.2218
-2.7993 MARK -0.2218
-2.7993 MARKS -0.2218
-2.7993 MENU -0.2218
-2.7993 MIKE -0.2218
-2.7993 NINE -0.2218
-2.7993 NOVEMBER -0.2218
-2.7993 NUMBER -0.2218
-2.7993 ONE -0.2218
-2.7993 ORDINAL -0.2218
-2.7993 OSCAR -0.2218
-2.7993 OUT -0.2218
-2.7993 OVER -0.2218
-2.7993 PAPA -0.2218
-2.7993 PERCENT -0.2218
-2.7993 PERIOD -0.2218
-2.7993 PILCROW -0.2218
-2.7993 PIPE -0.2218
-2.7993 POUND -0.2218
-2.7993 PRIME -0.2218
-2.7993 QUEBEC -0.2218
-2.7993 QUESTION -0.2218
-2.7993 QUOTATION -0.2218
-2.7993 RECORDING -0.2218
-2.7993 REGISTERED -0.2218
-2.7993 ROGER -0.2218
-2.7993 ROMEO -0.2218
-2.7993 SECTION -0.2218
-2.7993 SEMICOLON -0.2218
-2.7993 SERVICE -0.2218
-2.7993 SEVEN -0.2218
-2.7993 SIERRA -0.2218
-2.3222 SIGN -0.2218
-2.7993 SIX -0.2218
-2.7993 SLASH -0.2218
-2.7993 SOUND -0.2218
-2.7993 SPACE -0.2218
-2.7993 STROKE -0.2218
-2.7993 SYMBOL -0.2218
-2.7993 TANGO -0.2218
-2.7993 TEN -0.2218
-2.7993 THREE -0.2218
-2.7993 TILDE -0.2218
-2.7993 TRADEMARK -0.2218
-2.7993 TWO -0.2218
-2.7993 UNDERSCORE -0.2218
-2.7993 UNDERSTRIKE -0.2218
-2.7993 UNIFORM -0.2218
-2.7993 VERTICAL -0.2218
-2.7993 VICTOR -0.2218
-2.7993 WHISKEY -0.2218
-2.7993 XRAY -0.2218
-2.7993 YANKEE -0.2218
-2.7993 ZULU -0.2218

\2-grams:
-2.3222 <s> ALFA 0.0000
-2.3222 <s> AMPERSAND 0.0000
-2.3222 <s> APOSTROPHE 0.0000
-2.3222 <s> ASTERISK 0.0000
-2.3222 <s> AT 0.0000
-2.3222 <s> BACKSLASH 0.0000
-2.3222 <s> BAR 0.0000
-2.3222 <s> BRACKETS 0.0000
-2.3222 <s> BRAVO 0.0000
-2.3222 <s> BROKEN 0.0000
-2.3222 <s> BULLET 0.0000
-2.3222 <s> CARET 0.0000
-2.3222 <s> CHARLIE 0.0000
-2.3222 <s> CLOSE 0.0000
-2.3222 <s> COLON 0.0000
-2.3222 <s> COMMA 0.0000
-2.0212 <s> COPYRIGHT 0.0000
-2.3222 <s> CURRENCY 0.0000
-2.3222 <s> DAGGER 0.0000
-2.0212 <s> DASH 0.0000
-2.3222 <s> DEGREE 0.0000
-2.3222 <s> DELTA 0.0000
-2.3222 <s> DITTO 0.0000
-2.3222 <s> DOLLAR 0.0000
-2.3222 <s> DOT 0.0000
-2.3222 <s> ECHO 0.0000
-2.3222 <s> EIGHT 0.0000
-2.3222 <s> ELLIPSIS 0.0000
-2.3222 <s> ENTER 0.0000
-2.3222 <s> EXCLAMATION 0.0000
-2.3222 <s> FIVE 0.0000
-2.3222 <s> FOUR 0.0000
-2.3222 <s> FOXTROT 0.0000
-2.3222 <s> FULL 0.0000
-2.3222 <s> GOLF 0.0000
-2.3222 <s> GUILLEMETS 0.0000
-2.3222 <s> HASH 0.0000
-2.3222 <s> HOTEL 0.0000
-2.3222 <s> HYPHEN 0.0000
-2.3222 <s> INDIA 0.0000
-2.3222 <s> INDICATOR 0.0000
-2.3222 <s> INTERPUNCT 0.0000
-2.3222 <s> INVERTED 0.0000
-2.3222 <s> JULIETT 0.0000
-2.3222 <s> KEYBOARD 0.0000
-2.3222 <s> KILO 0.0000
-2.3222 <s> LIMA 0.0000
-2.3222 <s> LOW 0.0000
-2.3222 <s> MARK 0.0000
-2.3222 <s> MARKS 0.0000
-2.3222 <s> MENU 0.0000
-2.3222 <s> MIKE 0.0000
-2.3222 <s> NINE 0.0000
-2.3222 <s> NOVEMBER 0.0000
-2.3222 <s> NUMBER 0.0000
-2.3222 <s> ONE 0.0000
-2.3222 <s> ORDINAL 0.0000
-2.3222 <s> OSCAR 0.0000
-2.3222 <s> OUT 0.0000
-2.3222 <s> OVER 0.0000
-2.3222 <s> PAPA 0.0000
-2.3222 <s> PERCENT 0.0000
-2.3222 <s> PERIOD 0.0000
-2.3222 <s> PILCROW 0.0000
-2.3222 <s> PIPE 0.0000
-2.3222 <s> POUND 0.0000
-2.3222 <s> PRIME 0.0000
-2.3222 <s> QUEBEC 0.0000
-2.3222 <s> QUESTION 0.0000
-2.3222 <s> QUOTATION 0.0000
-2.3222 <s> RECORDING 0.0000
-2.3222 <s> REGISTERED 0.0000
-2.3222 <s> ROGER 0.0000
-2.3222 <s> ROMEO 0.0000
-2.3222 <s> SECTION 0.0000
-2.3222 <s> SEMICOLON 0.0000
-2.3222 <s> SERVICE 0.0000
-2.3222 <s> SEVEN 0.0000
-2.3222 <s> SIERRA 0.0000
-1.8451 <s> SIGN 0.0000
-2.3222 <s> SIX 0.0000
-2.3222 <s> SLASH 0.0000
-2.3222 <s> SOUND 0.0000
-2.3222 <s> SPACE 0.0000
-2.3222 <s> STROKE 0.0000
-2.3222 <s> SYMBOL 0.0000
-2.3222 <s> TANGO 0.0000
-2.3222 <s> TEN 0.0000
-2.3222 <s> THREE 0.0000
-2.3222 <s> TILDE 0.0000
-2.3222 <s> TRADEMARK 0.0000
-2.3222 <s> TWO 0.0000
-2.3222 <s> UNDERSCORE 0.0000
-2.3222 <s> UNDERSTRIKE 0.0000
-2.3222 <s> UNIFORM 0.0000
-2.3222 <s> VERTICAL 0.0000
-2.3222 <s> VICTOR 0.0000
-2.3222 <s> WHISKEY 0.0000
-2.3222 <s> XRAY 0.0000
-2.3222 <s> YANKEE 0.0000
-2.3222 <s> ZULU 0.0000
-0.3010 ALFA </s> -0.3010
-0.3010 AMPERSAND </s> -0.3010
-0.3010 APOSTROPHE </s> -0.3010
-0.3010 ASTERISK </s> -0.3010
-0.3010 AT </s> -0.3010
-0.3010 BACKSLASH </s> -0.3010
-0.3010 BAR </s> -0.3010
-0.3010 BRACKETS </s> -0.3010
-0.3010 BRAVO </s> -0.3010
-0.3010 BROKEN </s> -0.3010
-0.3010 BULLET </s> -0.3010
-0.3010 CARET </s> -0.3010
-0.3010 CHARLIE </s> -0.3010
-0.3010 CLOSE </s> -0.3010
-0.3010 COLON </s> -0.3010
-0.3010 COMMA </s> -0.3010
-0.3010 COPYRIGHT </s> -0.3010
-0.3010 CURRENCY </s> -0.3010
-0.3010 DAGGER </s> -0.3010
-0.3010 DASH </s> -0.3010
-0.3010 DEGREE </s> -0.3010
-0.3010 DELTA </s> -0.3010
-0.3010 DITTO </s> -0.3010
-0.3010 DOLLAR </s> -0.3010
-0.3010 DOT </s> -0.3010
-0.3010 ECHO </s> -0.3010
-0.3010 EIGHT </s> -0.3010
-0.3010 ELLIPSIS </s> -0.3010
-0.3010 ENTER </s> -0.3010
-0.3010 EXCLAMATION </s> -0.3010
-0.3010 FIVE </s> -0.3010
-0.3010 FOUR </s> -0.3010
-0.3010 FOXTROT </s> -0.3010
-0.3010 FULL </s> -0.3010
-0.3010 GOLF </s> -0.3010
-0.3010 GUILLEMETS </s> -0.3010
-0.3010 HASH </s> -0.3010
-0.3010 HOTEL </s> -0.3010
-0.3010 HYPHEN </s> -0.3010
-0.3010 INDIA </s> -0.3010
-0.3010 INDICATOR </s> -0.3010
-0.3010 INTERPUNCT </s> -0.3010
-0.3010 INVERTED </s> -0.3010
-0.3010 JULIETT </s> -0.3010
-0.3010 KEYBOARD </s> -0.3010
-0.3010 KILO </s> -0.3010
-0.3010 LIMA </s> -0.3010
-0.3010 LOW </s> -0.3010
-0.3010 MARK </s> -0.3010
-0.3010 MARKS </s> -0.3010
-0.3010 MENU </s> -0.3010
-0.3010 MIKE </s> -0.3010
-0.3010 NINE </s> -0.3010
-0.3010 NOVEMBER </s> -0.3010
-0.3010 NUMBER </s> -0.3010
-0.3010 ONE </s> -0.3010
-0.3010 ORDINAL </s> -0.3010
-0.3010 OSCAR </s> -0.3010
-0.3010 OUT </s> -0.3010
-0.3010 OVER </s> -0.3010
-0.3010 PAPA </s> -0.3010
-0.3010 PERCENT </s> -0.3010
-0.3010 PERIOD </s> -0.3010
-0.3010 PILCROW </s> -0.3010
-0.3010 PIPE </s> -0.3010
-0.3010 POUND </s> -0.3010
-0.3010 PRIME </s> -0.3010
-0.3010 QUEBEC </s> -0.3010
-0.3010 QUESTION </s> -0.3010
-0.3010 QUOTATION </s> -0.3010
-0.3010 RECORDING </s> -0.3010
-0.3010 REGISTERED </s> -0.3010
-0.3010 ROGER </s> -0.3010
-0.3010 ROMEO </s> -0.3010
-0.3010 SECTION </s> -0.3010
-0.3010 SEMICOLON </s> -0.3010
-0.3010 SERVICE </s> -0.3010
-0.3010 SEVEN </s> -0.3010
-0.3010 SIERRA </s> -0.3010
-0.3010 SIGN </s> -0.3010
-0.3010 SIX </s> -0.3010
-0.3010 SLASH </s> -0.3010
-0.3010 SOUND </s> -0.3010
-0.3010 SPACE </s> -0.3010
-0.3010 STROKE </s> -0.3010
-0.3010 SYMBOL </s> -0.3010
-0.3010 TANGO </s> -0.3010
-0.3010 TEN </s> -0.3010
-0.3010 THREE </s> -0.3010
-0.3010 TILDE </s> -0.3010
-0.3010 TRADEMARK </s> -0.3010
-0.3010 TWO </s> -0.3010
-0.3010 UNDERSCORE </s> -0.3010
-0.3010 UNDERSTRIKE </s> -0.3010
-0.3010 UNIFORM </s> -0.3010
-0.3010 VERTICAL </s> -0.3010
-0.3010 VICTOR </s> -0.3010
-0.3010 WHISKEY </s> -0.3010
-0.3010 XRAY </s> -0.3010
-0.3010 YANKEE </s> -0.3010
-0.3010 ZULU </s> -0.3010

\3-grams:
-0.3010 <s> ALFA </s>
-0.3010 <s> AMPERSAND </s>
-0.3010 <s> APOSTROPHE </s>
-0.3010 <s> ASTERISK </s>
-0.3010 <s> AT </s>
-0.3010 <s> BACKSLASH </s>
-0.3010 <s> BAR </s>
-0.3010 <s> BRACKETS </s>
-0.3010 <s> BRAVO </s>
-0.3010 <s> BROKEN </s>
-0.3010 <s> BULLET </s>
-0.3010 <s> CARET </s>
-0.3010 <s> CHARLIE </s>
-0.3010 <s> CLOSE </s>
-0.3010 <s> COLON </s>
-0.3010 <s> COMMA </s>
-0.3010 <s> COPYRIGHT </s>
-0.3010 <s> CURRENCY </s>
-0.3010 <s> DAGGER </s>
-0.3010 <s> DASH </s>
-0.3010 <s> DEGREE </s>
-0.3010 <s> DELTA </s>
-0.3010 <s> DITTO </s>
-0.3010 <s> DOLLAR </s>
-0.3010 <s> DOT </s>
-0.3010 <s> ECHO </s>
-0.3010 <s> EIGHT </s>
-0.3010 <s> ELLIPSIS </s>
-0.3010 <s> ENTER </s>
-0.3010 <s> EXCLAMATION </s>
-0.3010 <s> FIVE </s>
-0.3010 <s> FOUR </s>
-0.3010 <s> FOXTROT </s>
-0.3010 <s> FULL </s>
-0.3010 <s> GOLF </s>
-0.3010 <s> GUILLEMETS </s>
-0.3010 <s> HASH </s>
-0.3010 <s> HOTEL </s>
-0.3010 <s> HYPHEN </s>
-0.3010 <s> INDIA </s>
-0.3010 <s> INDICATOR </s>
-0.3010 <s> INTERPUNCT </s>
-0.3010 <s> INVERTED </s>
-0.3010 <s> JULIETT </s>
-0.3010 <s> KEYBOARD </s>
-0.3010 <s> KILO </s>
-0.3010 <s> LIMA </s>
-0.3010 <s> LOW </s>
-0.3010 <s> MARK </s>
-0.3010 <s> MARKS </s>
-0.3010 <s> MENU </s>
-0.3010 <s> MIKE </s>
-0.3010 <s> NINE </s>
-0.3010 <s> NOVEMBER </s>
-0.3010 <s> NUMBER </s>
-0.3010 <s> ONE </s>
-0.3010 <s> ORDINAL </s>
-0.3010 <s> OSCAR </s>
-0.3010 <s> OUT </s>
-0.3010 <s> OVER </s>
-0.3010 <s> PAPA </s>
-0.3010 <s> PERCENT </s>
-0.3010 <s> PERIOD </s>
-0.3010 <s> PILCROW </s>
-0.3010 <s> PIPE </s>
-0.3010 <s> POUND </s>
-0.3010 <s> PRIME </s>
-0.3010 <s> QUEBEC </s>
-0.3010 <s> QUESTION </s>
-0.3010 <s> QUOTATION </s>
-0.3010 <s> RECORDING </s>
-0.3010 <s> REGISTERED </s>
-0.3010 <s> ROGER </s>
-0.3010 <s> ROMEO </s>
-0.3010 <s> SECTION </s>
-0.3010 <s> SEMICOLON </s>
-0.3010 <s> SERVICE </s>
-0.3010 <s> SEVEN </s>
-0.3010 <s> SIERRA </s>
-0.3010 <s> SIGN </s>
-0.3010 <s> SIX </s>
-0.3010 <s> SLASH </s>
-0.3010 <s> SOUND </s>
-0.3010 <s> SPACE </s>
-0.3010 <s> STROKE </s>
-0.3010 <s> SYMBOL </s>
-0.3010 <s> TANGO </s>
-0.3010 <s> TEN </s>
-0.3010 <s> THREE </s>
-0.3010 <s> TILDE </s>
-0.3010 <s> TRADEMARK </s>
-0.3010 <s> TWO </s>
-0.3010 <s> UNDERSCORE </s>
-0.3010 <s> UNDERSTRIKE </s>
-0.3010 <s> UNIFORM </s>
-0.3010 <s> VERTICAL </s>
-0.3010 <s> VICTOR </s>
-0.3010 <s> WHISKEY </s>
-0.3010 <s> XRAY </s>
-0.3010 <s> YANKEE </s>
-0.3010 <s> ZULU </s>

\end\
