Language model created by QuickLM on Thu Mar  3 13:21:09 EST 2011
Copyright (c) 1996-2010 Carnegie Mellon University and Alexander I. Rudnicky

The model is in standard ARPA format, designed by Doug Paul while he was at MITRE.

The code that was used to produce this language model is available in Open Source.
Please visit http://www.speech.cs.cmu.edu/tools/ for more information

The (fixed) discount mass is 0.5. The backoffs are computed using the ratio method.
This model based on a corpus of 68 sentences and 68 words

\data\
ngram 1=68
ngram 2=132
ngram 3=66

\1-grams:
-0.7782 </s> -0.3010
-0.7782 <s> -0.2218
-2.6107 ADDITION -0.2218
-2.6107 ALFA -0.2218
-2.6107 AMPERSAND -0.2218
-2.6107 AT -0.2218
-2.6107 BACKSLASH -0.2218
-2.6107 BACKSPACE -0.2218
-2.6107 BRAVO -0.2218
-2.6107 BULLET -0.2218
-2.6107 CHARLIE -0.2218
-2.6107 CLOSE -0.2218
-2.6107 COLON -0.2218
-2.6107 COMMA -0.2218
-2.6107 COPYRIGHT -0.2218
-2.3096 DASH -0.2218
-2.6107 DELTA -0.2218
-2.6107 DOT -0.2218
-2.6107 EIGHT -0.2218
-2.6107 ELEFANT -0.2218
-2.6107 ENTER -0.2218
-2.6107 EXCLAMATION -0.2218
-2.6107 FIVE -0.2218
-2.6107 FOUR -0.2218
-2.6107 FOXTROT -0.2218
-2.6107 GAMMA -0.2218
-2.6107 HASH -0.2218
-2.6107 HOTEL -0.2218
-2.6107 INDIA -0.2218
-2.6107 JULIETT -0.2218
-2.6107 KARMA -0.2218
-2.6107 KEYBOARD -0.2218
-2.6107 LIMA -0.2218
-2.6107 MARK -0.2218
-2.6107 MENU -0.2218
-2.6107 MIKE -0.2218
-2.6107 MINUS -0.2218
-2.6107 NINE -0.2218
-2.6107 NOVEMBER -0.2218
-2.6107 ONE -0.2218
-2.6107 OSCAR -0.2218
-2.6107 PAPA -0.2218
-2.6107 PERCENT -0.2218
-2.6107 PIPE -0.2218
-2.6107 POUND -0.2218
-2.6107 QUEEN -0.2218
-2.6107 QUESTION -0.2218
-2.6107 QUOTATION -0.2218
-2.6107 ROMEO -0.2218
-2.6107 SEMICOLON -0.2218
-2.6107 SEVEN -0.2218
-2.6107 SIERRA -0.2218
-2.3096 SIGN -0.2218
-2.6107 SIX -0.2218
-2.6107 SLASH -0.2218
-2.6107 SPACE -0.2218
-2.6107 TANGO -0.2218
-2.6107 THREE -0.2218
-2.6107 TWO -0.2218
-2.6107 UNDERSCORE -0.2218
-2.6107 UNDERSTRIKE -0.2218
-2.6107 UNIFORM -0.2218
-2.6107 VICTOR -0.2218
-2.6107 WHISKEY -0.2218
-2.6107 XENON -0.2218
-2.6107 YANKEE -0.2218
-2.6107 ZERO -0.2218
-2.6107 ZULU -0.2218

\2-grams:
-2.1335 <s> ADDITION 0.0000
-2.1335 <s> ALFA 0.0000
-2.1335 <s> AMPERSAND 0.0000
-2.1335 <s> AT 0.0000
-2.1335 <s> BACKSLASH 0.0000
-2.1335 <s> BACKSPACE 0.0000
-2.1335 <s> BRAVO 0.0000
-2.1335 <s> BULLET 0.0000
-2.1335 <s> CHARLIE 0.0000
-2.1335 <s> CLOSE 0.0000
-2.1335 <s> COLON 0.0000
-2.1335 <s> COMMA 0.0000
-2.1335 <s> COPYRIGHT 0.0000
-1.8325 <s> DASH 0.0000
-2.1335 <s> DELTA 0.0000
-2.1335 <s> DOT 0.0000
-2.1335 <s> EIGHT 0.0000
-2.1335 <s> ELEFANT 0.0000
-2.1335 <s> ENTER 0.0000
-2.1335 <s> EXCLAMATION 0.0000
-2.1335 <s> FIVE 0.0000
-2.1335 <s> FOUR 0.0000
-2.1335 <s> FOXTROT 0.0000
-2.1335 <s> GAMMA 0.0000
-2.1335 <s> HASH 0.0000
-2.1335 <s> HOTEL 0.0000
-2.1335 <s> INDIA 0.0000
-2.1335 <s> JULIETT 0.0000
-2.1335 <s> KARMA 0.0000
-2.1335 <s> KEYBOARD 0.0000
-2.1335 <s> LIMA 0.0000
-2.1335 <s> MARK 0.0000
-2.1335 <s> MENU 0.0000
-2.1335 <s> MIKE 0.0000
-2.1335 <s> MINUS 0.0000
-2.1335 <s> NINE 0.0000
-2.1335 <s> NOVEMBER 0.0000
-2.1335 <s> ONE 0.0000
-2.1335 <s> OSCAR 0.0000
-2.1335 <s> PAPA 0.0000
-2.1335 <s> PERCENT 0.0000
-2.1335 <s> PIPE 0.0000
-2.1335 <s> POUND 0.0000
-2.1335 <s> QUEEN 0.0000
-2.1335 <s> QUESTION 0.0000
-2.1335 <s> QUOTATION 0.0000
-2.1335 <s> ROMEO 0.0000
-2.1335 <s> SEMICOLON 0.0000
-2.1335 <s> SEVEN 0.0000
-2.1335 <s> SIERRA 0.0000
-1.8325 <s> SIGN 0.0000
-2.1335 <s> SIX 0.0000
-2.1335 <s> SLASH 0.0000
-2.1335 <s> SPACE 0.0000
-2.1335 <s> TANGO 0.0000
-2.1335 <s> THREE 0.0000
-2.1335 <s> TWO 0.0000
-2.1335 <s> UNDERSCORE 0.0000
-2.1335 <s> UNDERSTRIKE 0.0000
-2.1335 <s> UNIFORM 0.0000
-2.1335 <s> VICTOR 0.0000
-2.1335 <s> WHISKEY 0.0000
-2.1335 <s> XENON 0.0000
-2.1335 <s> YANKEE 0.0000
-2.1335 <s> ZERO 0.0000
-2.1335 <s> ZULU 0.0000
-0.3010 ADDITION </s> -0.3010
-0.3010 ALFA </s> -0.3010
-0.3010 AMPERSAND </s> -0.3010
-0.3010 AT </s> -0.3010
-0.3010 BACKSLASH </s> -0.3010
-0.3010 BACKSPACE </s> -0.3010
-0.3010 BRAVO </s> -0.3010
-0.3010 BULLET </s> -0.3010
-0.3010 CHARLIE </s> -0.3010
-0.3010 CLOSE </s> -0.3010
-0.3010 COLON </s> -0.3010
-0.3010 COMMA </s> -0.3010
-0.3010 COPYRIGHT </s> -0.3010
-0.3010 DASH </s> -0.3010
-0.3010 DELTA </s> -0.3010
-0.3010 DOT </s> -0.3010
-0.3010 EIGHT </s> -0.3010
-0.3010 ELEFANT </s> -0.3010
-0.3010 ENTER </s> -0.3010
-0.3010 EXCLAMATION </s> -0.3010
-0.3010 FIVE </s> -0.3010
-0.3010 FOUR </s> -0.3010
-0.3010 FOXTROT </s> -0.3010
-0.3010 GAMMA </s> -0.3010
-0.3010 HASH </s> -0.3010
-0.3010 HOTEL </s> -0.3010
-0.3010 INDIA </s> -0.3010
-0.3010 JULIETT </s> -0.3010
-0.3010 KARMA </s> -0.3010
-0.3010 KEYBOARD </s> -0.3010
-0.3010 LIMA </s> -0.3010
-0.3010 MARK </s> -0.3010
-0.3010 MENU </s> -0.3010
-0.3010 MIKE </s> -0.3010
-0.3010 MINUS </s> -0.3010
-0.3010 NINE </s> -0.3010
-0.3010 NOVEMBER </s> -0.3010
-0.3010 ONE </s> -0.3010
-0.3010 OSCAR </s> -0.3010
-0.3010 PAPA </s> -0.3010
-0.3010 PERCENT </s> -0.3010
-0.3010 PIPE </s> -0.3010
-0.3010 POUND </s> -0.3010
-0.3010 QUEEN </s> -0.3010
-0.3010 QUESTION </s> -0.3010
-0.3010 QUOTATION </s> -0.3010
-0.3010 ROMEO </s> -0.3010
-0.3010 SEMICOLON </s> -0.3010
-0.3010 SEVEN </s> -0.3010
-0.3010 SIERRA </s> -0.3010
-0.3010 SIGN </s> -0.3010
-0.3010 SIX </s> -0.3010
-0.3010 SLASH </s> -0.3010
-0.3010 SPACE </s> -0.3010
-0.3010 TANGO </s> -0.3010
-0.3010 THREE </s> -0.3010
-0.3010 TWO </s> -0.3010
-0.3010 UNDERSCORE </s> -0.3010
-0.3010 UNDERSTRIKE </s> -0.3010
-0.3010 UNIFORM </s> -0.3010
-0.3010 VICTOR </s> -0.3010
-0.3010 WHISKEY </s> -0.3010
-0.3010 XENON </s> -0.3010
-0.3010 YANKEE </s> -0.3010
-0.3010 ZERO </s> -0.3010
-0.3010 ZULU </s> -0.3010

\3-grams:
-0.3010 <s> ADDITION </s>
-0.3010 <s> ALFA </s>
-0.3010 <s> AMPERSAND </s>
-0.3010 <s> AT </s>
-0.3010 <s> BACKSLASH </s>
-0.3010 <s> BACKSPACE </s>
-0.3010 <s> BRAVO </s>
-0.3010 <s> BULLET </s>
-0.3010 <s> CHARLIE </s>
-0.3010 <s> CLOSE </s>
-0.3010 <s> COLON </s>
-0.3010 <s> COMMA </s>
-0.3010 <s> COPYRIGHT </s>
-0.3010 <s> DASH </s>
-0.3010 <s> DELTA </s>
-0.3010 <s> DOT </s>
-0.3010 <s> EIGHT </s>
-0.3010 <s> ELEFANT </s>
-0.3010 <s> ENTER </s>
-0.3010 <s> EXCLAMATION </s>
-0.3010 <s> FIVE </s>
-0.3010 <s> FOUR </s>
-0.3010 <s> FOXTROT </s>
-0.3010 <s> GAMMA </s>
-0.3010 <s> HASH </s>
-0.3010 <s> HOTEL </s>
-0.3010 <s> INDIA </s>
-0.3010 <s> JULIETT </s>
-0.3010 <s> KARMA </s>
-0.3010 <s> KEYBOARD </s>
-0.3010 <s> LIMA </s>
-0.3010 <s> MARK </s>
-0.3010 <s> MENU </s>
-0.3010 <s> MIKE </s>
-0.3010 <s> MINUS </s>
-0.3010 <s> NINE </s>
-0.3010 <s> NOVEMBER </s>
-0.3010 <s> ONE </s>
-0.3010 <s> OSCAR </s>
-0.3010 <s> PAPA </s>
-0.3010 <s> PERCENT </s>
-0.3010 <s> PIPE </s>
-0.3010 <s> POUND </s>
-0.3010 <s> QUEEN </s>
-0.3010 <s> QUESTION </s>
-0.3010 <s> QUOTATION </s>
-0.3010 <s> ROMEO </s>
-0.3010 <s> SEMICOLON </s>
-0.3010 <s> SEVEN </s>
-0.3010 <s> SIERRA </s>
-0.3010 <s> SIGN </s>
-0.3010 <s> SIX </s>
-0.3010 <s> SLASH </s>
-0.3010 <s> SPACE </s>
-0.3010 <s> TANGO </s>
-0.3010 <s> THREE </s>
-0.3010 <s> TWO </s>
-0.3010 <s> UNDERSCORE </s>
-0.3010 <s> UNDERSTRIKE </s>
-0.3010 <s> UNIFORM </s>
-0.3010 <s> VICTOR </s>
-0.3010 <s> WHISKEY </s>
-0.3010 <s> XENON </s>
-0.3010 <s> YANKEE </s>
-0.3010 <s> ZERO </s>
-0.3010 <s> ZULU </s>

\end\
