Language model created by QuickLM on Thu Feb 17 13:29:00 EST 2011
Copyright (c) 1996-2010 Carnegie Mellon University and Alexander I. Rudnicky

The model is in standard ARPA format, designed by Doug Paul while he was at MITRE.

The code that was used to produce this language model is available in Open Source.
Please visit http://www.speech.cs.cmu.edu/tools/ for more information

The (fixed) discount mass is 0.5. The backoffs are computed using the ratio method.
This model based on a corpus of 30 sentences and 33 words

\data\
ngram 1=33
ngram 2=60
ngram 3=50

\1-grams:
-0.9031 </s> -0.3010
-0.9031 <s> -0.2430
-1.5351 ABRIR -0.2749
-2.3802 ADELANTAR -0.2430
-2.0792 AUDIO -0.2430
-1.4771 CERRAR -0.2730
-2.3802 CINCO -0.2430
-2.3802 CORREO -0.2430
-2.3802 CUATRO -0.2430
-1.7782 DE -0.2937
-2.0792 DEL -0.2974
-2.3802 DIEZ -0.2430
-2.3802 DOS -0.2430
-2.0792 FACEBOOK -0.2430
-2.0792 HERRAMIENTAS -0.2430
-2.0792 NAVEGADOR -0.2430
-2.3802 NUEVE -0.2430
-2.3802 NUEVO -0.2992
-2.3802 OCHO -0.2430
-2.0792 REPORTE -0.2974
-1.7782 REPRODUCTOR -0.2937
-2.3802 RETRAZAR -0.2430
-2.3802 SEIS -0.2430
-2.3802 SIETE -0.2430
-2.3802 SIGUIENTE -0.2974
-2.3802 TODO -0.2430
-2.3802 TRES -0.2430
-2.0792 TRáFICO -0.2430
-2.3802 ULTIMA -0.2974
-2.3802 UNO -0.2430
-2.0792 VENTANA -0.2430
-2.0792 VIDEO -0.2430
-2.0792 WEATHER -0.2430

\2-grams:
-0.9331 <s> ABRIR 0.0000
-1.7782 <s> ADELANTAR 0.0000
-0.8751 <s> CERRAR 0.0000
-1.7782 <s> CINCO 0.0000
-1.7782 <s> CUATRO 0.0000
-1.7782 <s> DIEZ 0.0000
-1.7782 <s> DOS 0.0000
-1.7782 <s> NUEVE 0.0000
-1.7782 <s> NUEVO 0.0000
-1.7782 <s> OCHO 0.0000
-1.7782 <s> RETRAZAR 0.0000
-1.7782 <s> SEIS 0.0000
-1.7782 <s> SIETE 0.0000
-1.7782 <s> SIGUIENTE 0.0000
-1.7782 <s> TRES 0.0000
-1.7782 <s> ULTIMA 0.0000
-1.7782 <s> UNO 0.0000
-1.1461 ABRIR FACEBOOK 0.0000
-1.1461 ABRIR HERRAMIENTAS 0.0000
-1.1461 ABRIR NAVEGADOR 0.0000
-1.1461 ABRIR REPORTE 0.0000
-0.8451 ABRIR REPRODUCTOR 0.0000
-1.1461 ABRIR WEATHER 0.0000
-0.3010 ADELANTAR </s> -0.3010
-0.3010 AUDIO </s> -0.3010
-1.2041 CERRAR FACEBOOK 0.0000
-1.2041 CERRAR HERRAMIENTAS 0.0000
-1.2041 CERRAR NAVEGADOR 0.0000
-1.2041 CERRAR REPORTE 0.0000
-0.9031 CERRAR REPRODUCTOR 0.0000
-1.2041 CERRAR TODO 0.0000
-1.2041 CERRAR WEATHER 0.0000
-0.3010 CINCO </s> -0.3010
-0.3010 CORREO </s> -0.3010
-0.3010 CUATRO </s> -0.3010
-0.6021 DE AUDIO 0.0000
-0.6021 DE VIDEO 0.0000
-0.3010 DEL TRáFICO 0.0000
-0.3010 DIEZ </s> -0.3010
-0.3010 DOS </s> -0.3010
-0.3010 FACEBOOK </s> -0.3010
-0.3010 HERRAMIENTAS </s> -0.3010
-0.3010 NAVEGADOR </s> -0.3010
-0.3010 NUEVE </s> -0.3010
-0.3010 NUEVO CORREO 0.0000
-0.3010 OCHO </s> -0.3010
-0.3010 REPORTE DEL 0.0000
-0.3010 REPRODUCTOR DE 0.0000
-0.3010 RETRAZAR </s> -0.3010
-0.3010 SEIS </s> -0.3010
-0.3010 SIETE </s> -0.3010
-0.3010 SIGUIENTE VENTANA 0.0000
-0.3010 TODO </s> -0.3010
-0.3010 TRES </s> -0.3010
-0.3010 TRáFICO </s> -0.3010
-0.3010 ULTIMA VENTANA 0.0000
-0.3010 UNO </s> -0.3010
-0.3010 VENTANA </s> -0.3010
-0.3010 VIDEO </s> -0.3010
-0.3010 WEATHER </s> -0.3010

\3-grams:
-1.1461 <s> ABRIR FACEBOOK
-1.1461 <s> ABRIR HERRAMIENTAS
-1.1461 <s> ABRIR NAVEGADOR
-1.1461 <s> ABRIR REPORTE
-0.8451 <s> ABRIR REPRODUCTOR
-1.1461 <s> ABRIR WEATHER
-0.3010 <s> ADELANTAR </s>
-1.2041 <s> CERRAR FACEBOOK
-1.2041 <s> CERRAR HERRAMIENTAS
-1.2041 <s> CERRAR NAVEGADOR
-1.2041 <s> CERRAR REPORTE
-0.9031 <s> CERRAR REPRODUCTOR
-1.2041 <s> CERRAR TODO
-1.2041 <s> CERRAR WEATHER
-0.3010 <s> CINCO </s>
-0.3010 <s> CUATRO </s>
-0.3010 <s> DIEZ </s>
-0.3010 <s> DOS </s>
-0.3010 <s> NUEVE </s>
-0.3010 <s> NUEVO CORREO
-0.3010 <s> OCHO </s>
-0.3010 <s> RETRAZAR </s>
-0.3010 <s> SEIS </s>
-0.3010 <s> SIETE </s>
-0.3010 <s> SIGUIENTE VENTANA
-0.3010 <s> TRES </s>
-0.3010 <s> ULTIMA VENTANA
-0.3010 <s> UNO </s>
-0.3010 ABRIR FACEBOOK </s>
-0.3010 ABRIR HERRAMIENTAS </s>
-0.3010 ABRIR NAVEGADOR </s>
-0.3010 ABRIR REPORTE DEL
-0.3010 ABRIR REPRODUCTOR DE
-0.3010 ABRIR WEATHER </s>
-0.3010 CERRAR FACEBOOK </s>
-0.3010 CERRAR HERRAMIENTAS </s>
-0.3010 CERRAR NAVEGADOR </s>
-0.3010 CERRAR REPORTE DEL
-0.3010 CERRAR REPRODUCTOR DE
-0.3010 CERRAR TODO </s>
-0.3010 CERRAR WEATHER </s>
-0.3010 DE AUDIO </s>
-0.3010 DE VIDEO </s>
-0.3010 DEL TRáFICO </s>
-0.3010 NUEVO CORREO </s>
-0.3010 REPORTE DEL TRáFICO
-0.6021 REPRODUCTOR DE AUDIO
-0.6021 REPRODUCTOR DE VIDEO
-0.3010 SIGUIENTE VENTANA </s>
-0.3010 ULTIMA VENTANA </s>

\end\
