Language model created by QuickLM on Thu Feb 17 12:07:05 EST 2011
Copyright (c) 1996-2010 Carnegie Mellon University and Alexander I. Rudnicky

The model is in standard ARPA format, designed by Doug Paul while he was at MITRE.

The code that was used to produce this language model is available in Open Source.
Please visit http://www.speech.cs.cmu.edu/tools/ for more information

The (fixed) discount mass is 0.5. The backoffs are computed using the ratio method.
This model based on a corpus of 30 sentences and 31 words

\data\
ngram 1=31
ngram 2=59
ngram 3=51

\1-grams:
-0.8808 </s> -0.3010
-0.8808 <s> -0.2398
-2.3579 ALL -0.2398
-2.3579 BACKWARD -0.2398
-2.0569 BROWSER -0.2398
-1.4548 CLOSE -0.2715
-2.3579 E-MAIL -0.2398
-2.3579 EIGHT -0.2398
-2.0569 FACEBOOK -0.2398
-2.3579 FIVE -0.2398
-2.3579 FORWARD -0.2398
-2.3579 FOUR -0.2398
-2.3579 LAST -0.2972
-2.0569 MUSIC -0.2933
-2.3579 NEW -0.2991
-2.3579 NEXT -0.2972
-2.3579 NINE -0.2398
-2.3579 ONE -0.2398
-1.5128 OPEN -0.2735
-1.7559 PLAYER -0.2398
-2.0569 REPORT -0.2398
-2.3579 SEVEN -0.2398
-2.3579 SIX -0.2398
-2.3579 TEN -0.2398
-2.3579 THREE -0.2398
-2.0569 TOOLS -0.2398
-2.0569 TRAFFIC -0.2972
-2.3579 TWO -0.2398
-2.0569 VIDEO -0.2933
-2.0569 WEATHER -0.2398
-2.0569 WINDOW -0.2398

\2-grams:
-1.7782 <s> BACKWARD 0.0000
-0.8751 <s> CLOSE 0.0000
-1.7782 <s> EIGHT 0.0000
-1.7782 <s> FIVE 0.0000
-1.7782 <s> FORWARD 0.0000
-1.7782 <s> FOUR 0.0000
-1.7782 <s> LAST 0.0000
-1.7782 <s> NEW 0.0000
-1.7782 <s> NEXT 0.0000
-1.7782 <s> NINE 0.0000
-1.7782 <s> ONE 0.0000
-0.9331 <s> OPEN -0.0000
-1.7782 <s> SEVEN 0.0000
-1.7782 <s> SIX 0.0000
-1.7782 <s> TEN 0.0000
-1.7782 <s> THREE 0.0000
-1.7782 <s> TWO 0.0000
-0.3010 ALL </s> -0.3010
-0.3010 BACKWARD </s> -0.3010
-0.3010 BROWSER </s> -0.3010
-1.2041 CLOSE ALL 0.0000
-1.2041 CLOSE BROWSER 0.0000
-1.2041 CLOSE FACEBOOK 0.0000
-1.2041 CLOSE MUSIC 0.0000
-1.2041 CLOSE TOOLS 0.0000
-1.2041 CLOSE TRAFFIC 0.0000
-1.2041 CLOSE VIDEO 0.0000
-1.2041 CLOSE WEATHER 0.0000
-0.3010 E-MAIL </s> -0.3010
-0.3010 EIGHT </s> -0.3010
-0.3010 FACEBOOK </s> -0.3010
-0.3010 FIVE </s> -0.3010
-0.3010 FORWARD </s> -0.3010
-0.3010 FOUR </s> -0.3010
-0.3010 LAST WINDOW 0.0000
-0.3010 MUSIC PLAYER 0.0000
-0.3010 NEW E-MAIL 0.0000
-0.3010 NEXT WINDOW 0.0000
-0.3010 NINE </s> -0.3010
-0.3010 ONE </s> -0.3010
-1.1461 OPEN BROWSER 0.0000
-1.1461 OPEN FACEBOOK 0.0000
-1.1461 OPEN MUSIC 0.0000
-1.1461 OPEN TOOLS 0.0000
-1.1461 OPEN TRAFFIC 0.0000
-1.1461 OPEN VIDEO 0.0000
-1.1461 OPEN WEATHER 0.0000
-0.3010 PLAYER </s> -0.3010
-0.3010 REPORT </s> -0.3010
-0.3010 SEVEN </s> -0.3010
-0.3010 SIX </s> -0.3010
-0.3010 TEN </s> -0.3010
-0.3010 THREE </s> -0.3010
-0.3010 TOOLS </s> -0.3010
-0.3010 TRAFFIC REPORT 0.0000
-0.3010 TWO </s> -0.3010
-0.3010 VIDEO PLAYER 0.0000
-0.3010 WEATHER </s> -0.3010
-0.3010 WINDOW </s> -0.3010

\3-grams:
-0.3010 <s> BACKWARD </s>
-1.2041 <s> CLOSE ALL
-1.2041 <s> CLOSE BROWSER
-1.2041 <s> CLOSE FACEBOOK
-1.2041 <s> CLOSE MUSIC
-1.2041 <s> CLOSE TOOLS
-1.2041 <s> CLOSE TRAFFIC
-1.2041 <s> CLOSE VIDEO
-1.2041 <s> CLOSE WEATHER
-0.3010 <s> EIGHT </s>
-0.3010 <s> FIVE </s>
-0.3010 <s> FORWARD </s>
-0.3010 <s> FOUR </s>
-0.3010 <s> LAST WINDOW
-0.3010 <s> NEW E-MAIL
-0.3010 <s> NEXT WINDOW
-0.3010 <s> NINE </s>
-0.3010 <s> ONE </s>
-1.1461 <s> OPEN BROWSER
-1.1461 <s> OPEN FACEBOOK
-1.1461 <s> OPEN MUSIC
-1.1461 <s> OPEN TOOLS
-1.1461 <s> OPEN TRAFFIC
-1.1461 <s> OPEN VIDEO
-1.1461 <s> OPEN WEATHER
-0.3010 <s> SEVEN </s>
-0.3010 <s> SIX </s>
-0.3010 <s> TEN </s>
-0.3010 <s> THREE </s>
-0.3010 <s> TWO </s>
-0.3010 CLOSE ALL </s>
-0.3010 CLOSE BROWSER </s>
-0.3010 CLOSE FACEBOOK </s>
-0.3010 CLOSE MUSIC PLAYER
-0.3010 CLOSE TOOLS </s>
-0.3010 CLOSE TRAFFIC REPORT
-0.3010 CLOSE VIDEO PLAYER
-0.3010 CLOSE WEATHER </s>
-0.3010 LAST WINDOW </s>
-0.3010 MUSIC PLAYER </s>
-0.3010 NEW E-MAIL </s>
-0.3010 NEXT WINDOW </s>
-0.3010 OPEN BROWSER </s>
-0.3010 OPEN FACEBOOK </s>
-0.3010 OPEN MUSIC PLAYER
-0.3010 OPEN TOOLS </s>
-0.3010 OPEN TRAFFIC REPORT
-0.3010 OPEN VIDEO PLAYER
-0.3010 OPEN WEATHER </s>
-0.3010 TRAFFIC REPORT </s>
-0.3010 VIDEO PLAYER </s>

\end\
